14 100
</s> 0.004002686 0.004419403 -0.003830261 -0.003278046 0.001366577 0.003021088 0.0009408569 0.0002113342 -0.003603516 0.002218475 -0.004356384 0.001249542 -0.0007513428 -0.0009571838 -0.003315735 -0.001882172 0.002579346 0.00302536 0.002969055 0.001597443 0.0015448 -0.003802643 -0.004095764 0.004969635 0.003801269 0.003090057 -0.0006039429 0.004015656 -0.0004949951 0.0007347107 -0.000149231 -0.002983246 0.001312256 -0.001337433 -0.003825378 0.004754181 0.004379272 -0.001095123 -0.0002261352 0.0005091858 -0.003637695 -0.00400711 0.004554749 6.30188E-05 -0.002582398 -0.003042145 -0.003076477 0.00169693 0.000201416 0.001331024 -0.004213562 -0.003807831 -0.0001300049 0.001143646 0.002549744 -0.003170013 0.00407959 0.0009269714 0.00111969 -0.0006083679 0.00298645 -0.00228775 -0.002097473 0.002158356 -0.0007531738 0.001030731 0.001804504 -0.004088593 -0.001983032 0.002913666 0.004231873 0.003932037 -0.003046875 -0.002107697 -0.0009091187 0.002001495 -0.003788452 0.002997894 0.002787781 -0.001598969 -0.001551514 -0.002238312 0.004228821 0.003911896 -0.00117981 0.004214935 0.004820251 0.001815338 0.00498291 -0.003111114 -0.001531677 -0.002107391 -0.002907105 0.002814789 0.001579285 0.0004249573 -0.002193603 0.001523895 0.003059387 0.000193634 
' 0.002279663 -0.004952545 0.00431488 0.0004798889 -0.001831055 -0.002083282 -0.0007479858 -0.002935028 -0.004369507 -0.002837067 0.004277038 -0.001769867 -0.002679443 0.002317352 -0.001703796 0.004756622 -0.001604614 -0.004588776 0.002715759 -7.43103E-05 -0.00348877 0.0009757996 0.001441956 -0.0004814148 0.001824341 -0.003957672 0.0008810425 0.001816559 -0.003009033 0.0001420593 -6.072998E-05 -0.002399139 -0.002832642 -0.004693756 2.288818E-05 0.0001527405 9.765625E-06 -0.003933868 -0.004961853 -0.004746552 -0.004325562 -0.0005470276 0.001391296 0.001184235 -0.003182373 0.004998016 -0.002011414 -0.001273651 -0.001404419 0.004732513 -0.003763733 0.001161041 -0.001335449 0.003187714 4.058838E-05 0.004269562 -0.002819214 -0.002605133 -0.0041922 -0.00366684 -0.003199463 -0.003114777 0.002444153 -0.001866913 0.002680054 0.003690033 0.001355896 0.002950592 0.002475586 0.002340546 -0.00355072 -0.003433075 -0.003656616 -0.0001319885 0.004130554 -0.002736664 -0.003060303 -0.00419632 0.003305969 -0.004178924 -0.0005792236 0.002178802 -0.004618225 -0.004478607 0.001442871 0.003524628 0.004264221 0.002145538 0.003162232 -0.003127594 -0.003640442 0.003974762 -0.002764893 0.001753388 0.0005740356 0.001790314 -0.001182251 0.000198822 -0.001686096 -0.001126556 
, -0.004433594 -0.00326004 0.003485413 0.001005402 -0.002362671 -0.001591949 0.002494812 -0.003532562 -0.002313233 0.004734344 0.004248352 -0.003959198 0.0008709717 -0.002249908 0.0001522827 0.003006744 0.004846191 0.001986542 0.004112854 0.003146515 -0.0002313232 0.004474945 0.002536316 0.004741364 -0.001705322 0.004746552 0.004328919 -0.00142746 -0.004419556 0.004832611 0.0008969116 -0.002078705 -0.0007177735 -0.0007356262 -0.003853454 -0.001431122 -0.0004437256 -0.004926911 -0.00351593 -0.001203461 -0.0009411621 0.001790009 0.0008157348 -0.0006144714 0.002946167 0.001446381 0.0005477906 0.003617096 -0.001125488 -0.001426544 -0.0004135132 -0.002727509 -0.002999878 0.0002024841 0.004338074 -0.001367035 -2.075195E-05 -0.004135285 0.003708801 -0.001520233 0.00296814 -0.0024086 -0.0008950806 9.414673E-05 0.003623047 -8.621216E-05 0.004432678 -0.0007426452 0.00210022 -0.0001368713 -0.003901672 0.004250641 0.001055908 -0.003029327 0.003008118 -0.004144745 -0.004353638 0.00326767 -0.003431702 -0.002647552 0.003527832 0.00328537 0.0006851197 0.004523468 0.004856567 0.004055023 0.001764832 -0.004350433 0.002288818 -0.00489212 -0.001286316 0.001511993 0.0009808349 -0.001524811 0.002937927 -0.004608002 -0.001411133 -0.001311798 -0.001656189 0.003070831 
: -0.004730835 0.002778168 0.001337586 0.002829742 0.003677978 0.0002763367 0.0008255005 -0.004550018 -0.001028442 0.003213959 -0.001786194 0.004212799 -0.001193848 -0.003877716 -0.002591248 0.004899445 0.003338013 -0.003967438 0.004816589 -0.004208832 -0.004776611 0.002476044 -0.0006564331 -0.00233078 -0.0003814697 -0.002516022 0.002395935 0.00381485 0.004179688 -0.004412384 -0.002120056 9.307862E-06 -0.0009368897 0.003818207 0.002201843 0.004533844 -0.003074951 0.001707001 0.004267883 -0.001830292 0.002921753 0.001285248 -0.004515686 0.004198151 0.004709473 -0.002915802 -0.0002426147 -0.001599579 0.002444458 -0.003864899 0.003493347 -0.0009422302 -0.001217041 -0.002030792 -0.00440155 -0.003048553 -0.001118774 0.004617767 -0.002521057 -0.004637299 0.0003955078 0.00061203 0.003041077 7.278442E-05 0.003482056 0.002983246 -0.001308899 -0.0006370544 0.0007971192 0.001262665 0.003335266 0.004014435 -0.002503052 -0.002518463 -0.001620178 -0.002691498 0.001237793 -0.003828888 -0.002268982 -0.004973602 0.002175903 0.00436264 -0.002204895 -0.004550629 0.002967529 0.001587372 -0.002521667 -0.0006413269 -0.001231079 -0.0001234436 -0.001813049 3.555298E-05 -0.002763672 0.003761444 0.00382721 0.003261261 -0.001473999 0.0002732849 0.0008053589 -0.002682953 
= -0.00470581 -0.001056671 -0.001972351 0.002984161 0.002697143 0.001802826 -0.00309967 0.003543854 -0.001608887 0.003383026 0.001329651 0.004777374 0.002532349 0.0007151794 -0.002278137 0.004965973 -0.0022229 0.003330536 0.004983215 0.0048909 -0.0007183838 0.003260345 0.004519959 -0.002166596 0.004702148 -0.004964142 0.0002383423 -0.0004252625 0.004194946 -0.004311676 -0.001455383 -0.001603851 0.0004162598 0.004748993 -0.001654968 -0.004921112 -0.001477661 0.004249115 0.001045837 0.002904205 -0.003830566 -0.00128006 0.0005532837 -0.002346649 0.003513794 -0.004807281 0.003273621 -0.002392425 0.00321167 0.0031987 -0.001886902 0.003548126 0.0004193115 0.004769134 -0.003522034 -0.001243744 0.002792969 0.004435272 0.002274475 -0.0009867859 0.0004888916 -0.000771637 0.001908874 0.00260025 -0.00383667 -0.001320343 0.004287415 0.0002986145 0.004972534 0.004820404 0.0008163452 -0.004610443 0.004572754 0.002181854 -0.004598083 0.003654327 -0.004879761 -0.002204743 0.004450378 0.003374176 -0.0007287597 0.001191864 -0.003132019 -0.004669647 0.002182007 0.004402923 0.004060974 0.002804108 0.001508789 0.001959686 -6.439209E-05 0.001576691 -0.002592163 0.0008934021 0.0008981323 -7.06482E-05 0.0025354 0.000735321 -0.004145203 -0.001356659 
) 0.002047729 0.003516693 -0.003788147 0.0009999084 0.003601074 0.003768768 -0.00412445 0.002780304 -0.002648315 -0.001477203 0.001252136 0.002265778 -0.00404419 -0.002689972 0.001247864 0.0002375793 0.004569702 0.002161713 -0.002731018 -2.304077E-05 0.0008496094 -0.0023909 0.003221741 -0.002734833 0.004951782 0.0006834412 -0.00448761 0.0003834534 -0.0004675293 0.0009159851 0.00304718 0.0001130676 -0.0002520752 0.0003379822 -0.002767639 -0.00026474 0.003254395 0.003480682 0.001974182 -0.00496872 0.0002081299 -0.002624664 0.003678894 0.004282379 0.003265381 0.001553192 0.001252747 -0.001730194 -0.002417603 -0.001954498 -0.00389801 0.0002748108 0.0008154297 0.001383514 0.002132874 -0.003921356 0.003120728 -0.00140152 -0.004248352 0.003962555 -0.002845459 -0.0007783508 -0.004135437 0.004707794 -0.00192688 -0.004715729 0.003877869 0.001595612 0.003532715 0.001317596 0.003697815 0.0004072571 0.003689575 0.004352875 0.001730652 -0.0005760193 0.001199951 0.003921356 -0.003117371 -0.0005729675 0.001220093 0.002054291 0.0005599976 0.003697662 0.00140625 0.003282928 -0.003330994 -0.00198288 0.001914673 0.004638519 0.001615906 0.0006666565 -0.004598388 -0.004347687 0.004306946 0.002427521 -0.002976685 -0.00164444 -0.003851624 -0.003419037 
% 0.004436035 -0.002720489 0.001046448 -0.001091766 -0.00220398 -0.0005445862 -0.00459259 -0.002309418 -0.0002404785 0.00441452 -0.001862488 0.003709259 -0.004517212 0.00418808 0.0006430054 0.0002455139 0.00262207 0.003307343 -0.003169861 0.003080597 0.001333618 -0.001196442 0.003105164 0.0004957581 0.004273681 0.0002079773 -0.001625671 0.003272247 -0.003401489 -0.0004481506 0.004043884 0.004691315 -0.004035645 0.001366425 0.00402008 0.0005342102 0.002527466 0.002682953 0.004709167 -0.0009178162 -0.001055908 0.003032684 -0.004982605 0.001116486 0.0003704834 0.004446869 -0.003648987 -8.163452E-05 0.004462891 0.001456757 0.002616272 0.001269073 0.001377563 0.001093597 0.0002194214 0.00344986 0.003770752 0.002888641 -0.001933289 -0.002758026 -0.003201294 -0.001126862 -0.002435608 -0.004073334 -0.001882324 0.003578339 0.002618713 -0.004714813 -0.002116089 0.004035492 -0.0003640747 0.003598785 -0.001246338 -0.0002241516 -0.002477722 0.001648712 -0.004116821 0.002830658 -0.002315979 0.002716217 -0.003071289 -0.002268829 0.004027405 0.00258255 0.002046509 0.001508637 0.002958679 -0.0004710388 0.003892822 0.003694305 0.003384094 0.0043367 -0.002376099 -0.003680573 -0.0032901 0.0002870178 0.0008959961 0.003915253 -0.003157654 0.003161163 
_ 0.003865357 0.003513031 0.0001876831 0.001240387 -0.0008117676 0.004644013 -0.004347839 -0.004694061 0.002020874 -0.000660553 0.004642029 -0.001360931 1.953125E-05 0.002130585 0.001063538 -0.002978973 0.003340454 4.867554E-05 0.001322937 -0.001266937 0.004639892 0.002624969 0.004326477 0.004556427 -0.0009259033 0.001890717 0.001480408 -0.002227631 0.004299317 0.002377167 -0.003309021 0.00416214 0.0004718018 0.00111557 -0.003635559 0.002006989 0.0002478027 -0.002362824 -0.0005929566 0.002088165 -0.001216431 0.003973236 -0.002774963 -0.00231308 0.003735352 0.004654999 0.003724671 0.004584503 -0.0047406 -0.003286285 -0.004687805 0.001062164 -0.003988037 -0.0003193665 0.0008938599 -0.002098846 0.001149292 -0.004412994 0.001875916 -0.001617279 -0.001672363 -0.001035919 0.002164612 -0.001711884 -0.002296753 -0.003156891 -0.001833801 -0.00410141 0.001932373 -0.001244659 -0.001213074 0.001995392 -0.003828735 -0.003267975 -0.004566955 -0.0001402283 -0.001923828 -0.004695587 0.002010803 -0.00472702 -0.002196655 0.001503754 0.004926452 -0.003483734 -0.001990967 0.004861298 0.003086243 0.00437088 0.003849487 -0.002591705 -0.002103577 0.002118072 0.002980957 0.003675995 0.003263245 -0.004460907 -0.004440308 0.0006956482 -0.004407044 0.002915192 
\ 0.004241943 -0.002001495 0.003791809 -0.004972382 0.00418396 -0.002384186 -0.0007339477 -0.004842377 0.003041992 0.004078827 -0.004078064 -0.0009135437 0.0009722901 0.004418793 0.0001657104 -0.004904632 0.0006311035 -0.001833038 0.0009036255 0.003965607 -0.002825317 -0.002645416 -0.0004580689 -0.001021576 -0.001740723 -0.003487091 -1.312256E-05 -0.00408493 0.004041138 0.002673187 -0.001355286 0.003056793 -0.002823486 -0.004633331 0.004421692 0.001184845 0.002821655 -0.003375397 -0.00127594 0.003580475 -0.001367187 0.000978241 -0.004541931 -0.003975067 0.004766235 -0.004541168 0.001029968 -0.003200531 0.003878174 -0.0004023743 0.004346008 -0.003314667 0.001124878 -0.004574127 -0.003187561 -0.001036224 0.004162597 -0.002525177 0.00233551 -0.0005839539 0.003147583 0.002775726 -0.002678528 -0.003676605 0.000736084 0.0008598327 0.0006765747 0.0004670715 0.002084351 0.003758392 0.003807068 -0.004871673 0.004848633 -0.003997345 0.0006192017 -0.003911591 -0.0008148194 0.004623871 -0.002480774 0.001628571 -0.002249756 -0.0008467102 0.003413391 0.00253006 -0.004299927 0.001622162 -0.0002920532 0.002074127 0.000690918 -0.003438263 0.0003091431 -0.003957978 0.002879028 0.001003265 0.00162323 0.002714996 0.004920654 0.004477997 0.002556457 0.002874298 
" 0.001972046 -0.0009828187 0.004515076 -0.000198822 0.001689453 -0.0008479309 0.001405334 -0.000723114 0.004229126 0.00191391 -0.0003665161 -0.0004173279 0.002247314 -0.003166046 -0.001894226 0.001499786 0.0009002686 -0.004056549 -0.001771545 -0.001690521 -0.002155762 0.003773651 0.003907776 -0.004207001 0.003235474 -0.002644195 0.001549988 0.002231598 -0.0002697754 -0.003778839 6.134033E-05 -0.001593475 0.002484741 0.002400971 0.0008480835 -0.002400971 -0.0008447266 0.0004264832 -0.002183533 -0.004409637 -0.0001019287 -0.002671051 -0.002627258 0.0006617737 -0.002630615 0.002639618 -0.001576843 0.003594513 -0.003274536 -0.00161026 0.002373962 -0.00233017 -0.004377441 -0.0008894348 0.003131409 -0.001331024 0.004216919 0.001833344 -0.002898254 0.004873199 -0.004835205 -0.003910675 0.003191223 -0.002936249 0.003622436 0.00390976 0.002806091 -0.001478119 -0.002753906 -0.0001741028 -0.0001473999 -0.004971161 -0.003807983 0.000868988 0.0007369995 0.004865875 0.003116455 -0.003429718 0.00436554 -0.00118576 0.003175659 -0.001038971 0.00214447 0.0001551819 0.004025879 0.002572479 -0.002019959 0.004669952 -0.004176636 0.004435882 -0.001721497 0.000639801 0.001224365 0.004082489 0.001946106 -0.001154022 -0.004614868 0.003543549 0.0003890991 0.002569733 
! -0.004038086 -0.002649689 -0.002486267 -0.002407684 0.003110962 0.002534027 -0.0002737427 0.002194977 -0.0005114746 -0.001374054 -0.004067078 -0.002841034 0.0002508545 -0.002342682 -0.002460022 -0.004234467 0.003054199 0.004159393 -0.001546326 0.003795929 -0.00194519 -0.004836578 -0.004919739 -0.0004685974 -0.002091064 0.0002006531 -0.003674011 0.003753204 -0.002227173 0.001302338 0.003597107 -0.0002574158 -0.004697266 0.002999725 0.0007998657 0.003280792 0.0006549072 0.002324066 0.004340515 0.002649078 -0.003514404 -0.00119339 0.003125305 -0.001371307 -0.00204895 0.004478607 -0.001439514 0.004500885 0.00270752 0.003871307 0.004552307 -0.003953095 0.0009112549 0.004015961 -0.002492981 0.001548004 -0.004781494 0.004443817 -0.003669129 0.001785431 0.0007855225 -0.002813873 0.002430115 4.043579E-05 -0.004731445 -0.003225861 -0.0002890015 0.002094269 -0.001176147 0.0002391052 0.004579773 -0.00377182 0.004107666 -0.002887726 -0.004057312 0.003223419 -0.003723755 -0.0005751037 -0.004794006 -0.003638763 0.00298584 0.001708221 -0.00372406 0.001422882 0.0043927 0.0009934998 -0.004441223 -0.003310394 0.003153076 -0.003188019 0.001960754 0.002942658 0.004423218 0.001194916 -0.003111877 0.003463287 -0.004140625 -0.001326447 0.004247131 0.004032745 
( -0.002382202 -0.003720856 0.0004440308 0.002932281 0.002354736 0.003542938 0.004385071 0.0009431458 -0.00477356 0.002496185 -0.002523499 0.001346588 0.00388916 -0.002329865 0.003624573 -7.614135E-05 -0.001500855 -0.003903961 -0.0007644653 0.004956207 0.001712646 -0.002694855 0.003215637 -0.002775116 -0.001314087 0.003328705 -0.00302887 1.113892E-05 -0.002924805 -0.001302032 0.004408264 -0.0009037781 -0.002963257 0.0004441834 0.001933289 0.002761383 0.001226807 -0.001901398 -0.001547546 0.001787872 0.004801636 0.003692474 -0.004627991 -0.0005430603 -0.00458252 0.00175705 -0.003401794 0.001549835 0.003230591 -0.0006764221 -0.001462708 -0.003652191 0.0008972168 -0.004076691 9.552002E-05 0.004632111 0.003573608 0.003587494 0.002679138 -0.0003160095 -0.001083984 -0.003152618 0.000194397 -0.002715301 -0.002919312 0.002734222 -0.0009524536 -0.004284516 0.0007238769 0.0007792664 -0.001855164 -0.004242401 -0.004998169 0.003013763 -0.001107483 0.0006922912 -0.002429199 0.003968963 -0.004803162 -0.003699188 -0.001412964 0.000676117 0.00346405 0.0008644104 0.0007067871 0.002666473 0.002600403 -0.004835663 -0.0009136963 0.001971283 0.004012146 0.002481842 0.001381836 0.003121796 0.00160553 -0.001401825 -0.002250366 0.003149261 0.001786804 0.001794586 
+ 0.0008459472 0.00158493 0.003462219 0.002852325 -0.004172974 0.0004600525 -0.001961975 -0.004947357 0.0003491211 0.004305878 -0.0005795288 0.004176788 0.004568481 0.000153656 0.004015808 -0.001493988 0.001141357 -0.002465363 0.0007302857 -0.001178436 -0.004776001 -0.001519928 0.0009701538 -0.001595306 0.004472656 -0.00247879 -0.001358337 0.003036652 -0.0009564209 0.001689301 0.000151062 0.0009986877 0.001593018 0.0005155945 0.004404602 0.003072052 -0.002722778 -0.003968658 0.002808533 0.002537994 0.003752441 0.002767792 -0.000730896 -0.004822235 0.001174927 -0.002243805 0.0001925659 -0.0007273864 0.002200928 0.0005278015 0.004485168 -0.004396209 0.001986694 0.003113861 0.003553162 -0.002547455 -0.001811523 4.562378E-05 0.001302795 0.0006001282 0.0009625244 -0.00164566 0.00414032 0.003327789 0.002965088 -0.002428741 0.0009719849 -0.003583221 -0.000647583 -0.0002723694 0.00320404 0.003148346 -0.002219238 -0.0006452942 0.004742737 -0.0006962586 -0.001593628 0.003483734 0.001994324 0.003164215 0.003885498 0.001645966 0.003865051 -0.004488983 -0.0006256104 -0.00412735 0.001761169 -0.0003746033 0.002529297 0.0006950378 -0.0004110718 0.001288605 0.00350647 0.003144379 0.003754578 -0.001218109 0.004962158 0.002751923 0.003164368 0.002886505 
. 0.002052612 0.00154892 -0.0007754517 -0.003116302 0.002434082 0.00406662 -0.004158631 -0.003445282 -0.003737183 -0.002663727 -0.0005789184 0.0001808167 -0.003804932 0.0008891296 -0.001130066 -0.001456757 -0.002612915 -0.003243561 -0.004405823 0.004923248 -0.002504883 -0.0005305481 0.003500061 -0.004897919 -0.003324585 -0.003940582 -0.001006165 -0.002639008 -0.002415772 -0.003942413 0.0009817504 0.002481232 -0.004622193 0.001495209 0.0008700562 0.003744049 -0.002287598 -0.003096466 0.002565003 -0.003069305 0.004744263 -0.0006861878 0.002472839 0.0003224182 -0.0008703613 -0.001742706 -0.0005001831 0.00470047 -0.00397522 -0.004234772 -0.004947815 0.0033461 0.003085938 -0.003631134 0.003036194 0.002040558 0.0004693604 -0.002900543 -0.0001419067 -0.000934906 0.0008312988 -0.002511749 0.004424133 -0.004799042 -0.0006719971 -0.0004335022 -0.001859436 0.003729401 0.003615723 -0.002134552 0.004913635 0.0004316712 0.003850708 -0.0005836487 0.001149597 0.00358902 0.002689209 0.003750458 -0.0042453 0.003982697 -0.004712524 0.002899017 0.0001351929 0.004893952 -0.0006982422 0.00139328 -0.001802673 0.002104034 0.004888305 -0.003735504 -0.003652649 0.003894196 0.004703369 -0.002956085 0.003491516 0.001045685 0.003903198 -0.004237213 0.001036072 -0.003160248 
